           0           1   0.0000000000000000     
           0           2  -8.3898558268308268     
           0           3  -18.139413955799199     
           0           4  -34.358775852336102     
           0           5  -41.455151793394279     
           1           0   13.288376756370974     
           1           1  -8.9130729007849911     
           1           2  -19.689344588777637     
           1           3  -32.185137095612092     
           1           4  -45.062401358515409     
           1           5  -51.697204200604638     
           2           0  -6.2614560657562865     
           2           1  -20.465622365417502     
           2           2  -35.784077189338781     
           2           3  -48.036899965139746     
           2           4  -54.669833129054901     
           2           5  -65.660863113848691     
           3           0  -18.241498582363398     
           3           1  -35.843234734458569     
           3           2  -47.438805453664706     
           3           3  -58.542049751979057     
           3           4  -70.154945568501375     
           3           5  -81.904015232850909     
           4           0  -33.646699214912090     
           4           1  -48.138816703125158     
           4           2  -60.331732045289790     
           4           3  -72.180498835263464     
           4           4  -83.151442868582777     
           4           5  -89.586575341093507     
           5           0  -46.566355703876077     
           5           1  -58.644464973789788     
           5           2  -71.231135621601965     
           5           3  -82.877584345923566     
           5           4  -93.867605015916794     
           5           5  -103.23587337733451     
